    0.700367627649014363E-01   -0.199975613417467990E+01    0.202772157918750143E+10
    0.699481084969604261E-01   -0.200089823256790922E+01    0.202772158033851457E+10
    0.699756611934816697E-01   -0.200079832351331177E+01    0.202772158153973651E+10
    0.699951275904172887E-01   -0.200059768275966121E+01    0.202772158170509171E+10
    0.700261991077974488E-01   -0.199973190966468373E+01    0.202772158241923618E+10
    0.700245525549725578E-01   -0.199989726296862180E+01    0.202772158245828152E+10
    0.700036856109040456E-01   -0.199951383570743957E+01    0.202772158251294470E+10
    0.699540691643282808E-01   -0.200075262137611531E+01    0.202772158263930583E+10
    0.699750966469113306E-01   -0.199978555179832007E+01    0.202772158264407659E+10
    0.699507574772981477E-01   -0.200034964730573250E+01    0.202772158280698919E+10
    0.699685868260677829E-01   -0.200075836717791233E+01    0.202772158291777730E+10
    0.699604331927636547E-01   -0.200075986328155331E+01    0.202772158297203946E+10
    0.700212218996916630E-01   -0.199995155774520050E+01    0.202772158309879589E+10
    0.700232054370695661E-01   -0.199980806970316927E+01    0.202772158310641527E+10
    0.699854095662940101E-01   -0.199968643479503250E+01    0.202772158316647053E+10
    0.700211996684282356E-01   -0.199993654442076618E+01    0.202772158318950438E+10
    0.700138684829474944E-01   -0.199955827523646512E+01    0.202772158321873331E+10
    0.699781689211261965E-01   -0.200067465413451018E+01    0.202772158347111917E+10
    0.699526728182986307E-01   -0.200060129448945112E+01    0.202772158351331258E+10
    0.700210456664895758E-01   -0.199977259115036610E+01    0.202772158360031509E+10
    0.700062292345482451E-01   -0.199957858120553489E+01    0.202772158360897684E+10
    0.699894679940503139E-01   -0.199967249848293172E+01    0.202772158361463547E+10
    0.699879605748068984E-01   -0.200057808923511615E+01    0.202772158362282372E+10
    0.700030416186152860E-01   -0.199958877798122181E+01    0.202772158365247989E+10
    0.700164214497928233E-01   -0.200005708343844901E+01    0.202772158366968393E+10
    0.699539516483761586E-01   -0.200037146218295803E+01    0.202772158376496220E+10
    0.700165440724147964E-01   -0.199964126157315825E+01    0.202772158377999473E+10
    0.700185218974722079E-01   -0.199993465951305538E+01    0.202772158388490272E+10
    0.699684675564741648E-01   -0.200069088271984263E+01    0.202772158390393829E+10
    0.699570056971670351E-01   -0.200063866305085014E+01    0.202772158392218828E+10
    0.700088968789236293E-01   -0.199960496771252672E+01    0.202772158393716240E+10
    0.700043194529597762E-01   -0.199960946137963269E+01    0.202772158398251867E+10
    0.699644065876290772E-01   -0.200067592679534556E+01    0.202772158408665180E+10
    0.699948086093369615E-01   -0.199966023838273266E+01    0.202772158409594679E+10
    0.699556917391885302E-01   -0.200057332396771059E+01    0.202772158411016536E+10
    0.700125289092145831E-01   -0.200012388967371280E+01    0.202772158411630726E+10
    0.699596102413493626E-01   -0.200020573285686254E+01    0.202772158416152596E+10
    0.699670841262481219E-01   -0.200002333340174587E+01    0.202772158418321681E+10
    0.699704786294217673E-01   -0.199996162338810102E+01    0.202772158422372913E+10
    0.699727744652921951E-01   -0.200065366565476310E+01    0.202772158423860669E+10
    0.699588090578830701E-01   -0.200025471523494680E+01    0.202772158432277036E+10
    0.700068566321034869E-01   -0.200024212689088188E+01    0.202772158432367063E+10
    0.700035279463067234E-01   -0.200030596243823489E+01    0.202772158435881042E+10
    0.700114168622036903E-01   -0.199966050189441802E+01    0.202772158438906407E+10
    0.699579550316120763E-01   -0.200057956601754583E+01    0.202772158439365005E+10
    0.699572960299684327E-01   -0.200033900914364970E+01    0.202772158441699505E+10
    0.699640961453295573E-01   -0.200011147700416814E+01    0.202772158442012906E+10
    0.699565420758572476E-01   -0.200051191013368523E+01    0.202772158443413973E+10
    0.699637742927130823E-01   -0.200064044168807165E+01    0.202772158443460751E+10
    0.700003714800441212E-01   -0.200035522510235708E+01    0.202772158444676495E+10
    0.699865447738722835E-01   -0.200053876010590415E+01    0.202772158446365309E+10
    0.700148146854510933E-01   -0.199999688637104889E+01    0.202772158446466947E+10
    0.699830032541632618E-01   -0.200057079113482139E+01    0.202772158448546290E+10
    0.699575720596152945E-01   -0.200034093933015100E+01    0.202772158448578596E+10
    0.700128812036166642E-01   -0.199969106938149643E+01    0.202772158450904346E+10
    0.699679696475757756E-01   -0.200003513237140496E+01    0.202772158453029680E+10
    0.700037286228278738E-01   -0.199965443842177670E+01    0.202772158453151083E+10
    0.699630083469756914E-01   -0.200015147877196853E+01    0.202772158453274798E+10
    0.699859756278666117E-01   -0.199977084410470596E+01    0.202772158459718013E+10
    0.699667932431671247E-01   -0.200034447136775206E+01    0.202772158608371115E+10
    0.699792106425696919E-01   -0.200005150516507157E+01    0.202772158659349132E+10
    0.699766092859232663E-01   -0.200037939609402748E+01    0.202772158667935991E+10
    0.699766092859232663E-01   -0.200037939609402748E+01    0.202772158667935991E+10
    0.699768694601954622E-01   -0.200031740389301049E+01    0.202772158691642952E+10
    0.699795841219427589E-01   -0.200020793491057880E+01    0.202772158714902925E+10
    0.699795841219427589E-01   -0.200020793491057880E+01    0.202772158714902925E+10
    0.699925085376444794E-01   -0.199984037083309651E+01    0.202772158607614779E+10
    0.699840385163446460E-01   -0.200000710290125205E+01    0.202772158677421451E+10
    0.699910234939203069E-01   -0.200015736371966923E+01    0.202772158718429852E+10
    0.699910234939203069E-01   -0.200015736371966923E+01    0.202772158718429852E+10
    0.699620230981267410E-01   -0.200021583641692935E+01    0.202772158480690932E+10
    0.699842571071536551E-01   -0.199985916958751808E+01    0.202772158548983216E+10
    0.699788594913720169E-01   -0.200023345173917200E+01    0.202772158711678863E+10
    0.699788594913720169E-01   -0.200023345173917200E+01    0.202772158711678863E+10
    0.699788594913720169E-01   -0.200023345173917200E+01    0.202772158711678863E+10
    0.699971322327543471E-01   -0.199979737241574185E+01    0.202772158587865782E+10
    0.699900294561127817E-01   -0.200043332034278976E+01    0.202772158534828544E+10
    0.699643419604535910E-01   -0.200057271243877466E+01    0.202772158503878021E+10
    0.699701052526769535E-01   -0.200013201074768610E+01    0.202772158583297539E+10
    0.699832634343275223E-01   -0.200025661567345203E+01    0.202772158716299081E+10
    0.699832634343275223E-01   -0.200025661567345203E+01    0.202772158716299081E+10
    0.699603456325830347E-01   -0.200045444421926710E+01    0.202772158513309884E+10
    0.699767084836358383E-01   -0.200005235088266708E+01    0.202772158629063940E+10
    0.699933725304396070E-01   -0.200015759897404521E+01    0.202772158704090786E+10
    0.699933725304396070E-01   -0.200015759897404521E+01    0.202772158704090786E+10
    0.699779599747094028E-01   -0.200042374977131132E+01    0.202772158641377616E+10
    0.699778188750590363E-01   -0.200012551268948613E+01    0.202772158683551407E+10
    0.699778188750590363E-01   -0.200012551268948613E+01    0.202772158683551407E+10
    0.699912117513380311E-01   -0.200025138680904568E+01    0.202772158680921412E+10
    0.699912117513380311E-01   -0.200025138680904568E+01    0.202772158680921412E+10
    0.699805798634734189E-01   -0.200009581080609955E+01    0.202772158695668674E+10
    0.699805798634734189E-01   -0.200009581080609955E+01    0.202772158695668674E+10
    0.700037475833452383E-01   -0.200015904633032449E+01    0.202772158573178720E+10
    0.699672738665673838E-01   -0.200025289139445483E+01    0.202772158598634768E+10
    0.699857011310181104E-01   -0.199994780213688017E+01    0.202772158649948072E+10
    0.699792868202617352E-01   -0.200012795835934121E+01    0.202772158697537303E+10
    0.699792868202617352E-01   -0.200012795835934121E+01    0.202772158697537303E+10
    0.699756513119978163E-01   -0.200042291562987451E+01    0.202772158643330407E+10
    0.699756513119978163E-01   -0.200042291562987451E+01    0.202772158643330407E+10
    0.699909229334151617E-01   -0.200019989488646566E+01    0.202772158706897926E+10
    0.699909229334151617E-01   -0.200019989488646566E+01    0.202772158706897926E+10
    0.699648942049100886E-01   -0.200025340434289767E+01    0.202772158559084988E+10
    0.699926867107152073E-01   -0.199985412997623868E+01    0.202772158620684624E+10
    0.699826628240593357E-01   -0.200011821858604577E+01    0.202772158716810584E+10
    0.699826628240593357E-01   -0.200011821858604577E+01    0.202772158716810584E+10
    0.699849487621247157E-01   -0.200005543323740476E+01    0.202772158707871127E+10
    0.699849487621247157E-01   -0.200005543323740476E+01    0.202772158707871127E+10
    0.699787711552195962E-01   -0.199994576332268004E+01    0.202772158564985466E+10
    0.699868136793100754E-01   -0.199988702051803457E+01    0.202772158607599854E+10
    0.699967613800937805E-01   -0.199977188908528269E+01    0.202772158562500191E+10
    0.699715042359066730E-01   -0.200054781148495131E+01    0.202772158547135043E+10
    0.699912610448044509E-01   -0.200021867746474946E+01    0.202772158696989942E+10
    0.699912610448044509E-01   -0.200021867746474946E+01    0.202772158696989942E+10
    0.699952957757474653E-01   -0.199984869856884728E+01    0.202772158625982642E+10
    0.699839273183279348E-01   -0.200000977560388371E+01    0.202772158678181791E+10
    0.699839273183279348E-01   -0.200000977560388371E+01    0.202772158678181791E+10
    0.699786604892247699E-01   -0.199989329159623175E+01    0.202772158503305221E+10
    0.699806348401036116E-01   -0.200004313639526821E+01    0.202772158669112635E+10
    0.699816445043585644E-01   -0.200041387493494582E+01    0.202772158636000609E+10
    0.699922359751026235E-01   -0.199985403477858981E+01    0.202772158618279028E+10
    0.700022499009840121E-01   -0.200008824813106756E+01    0.202772158634775066E+10
    0.700018107241834747E-01   -0.199997751605559237E+01    0.202772158657937002E+10
    0.699617859937663455E-01   -0.200034821733305179E+01    0.202772158533758259E+10
    0.699987907185800756E-01   -0.199987883077605133E+01    0.202772158646206141E+10
    0.699906983136399097E-01   -0.200033256705628482E+01    0.202772158628889322E+10
    0.700125773804288337E-01   -0.199994953440155498E+01    0.202772158511337090E+10
    0.699781513344146927E-01   -0.200003928078645110E+01    0.202772158638534999E+10
    0.699937070515337934E-01   -0.200005298847352719E+01    0.202772158713794255E+10
    0.699937070515337934E-01   -0.200005298847352719E+01    0.202772158713794255E+10
    0.699937070515337934E-01   -0.200005298847352719E+01    0.202772158713794255E+10
    0.699843840184182497E-01   -0.199998310817607639E+01    0.202772158664600277E+10
    0.699837331102647342E-01   -0.200026530147650661E+01    0.202772158713077784E+10
    0.699837331102647342E-01   -0.200026530147650661E+01    0.202772158713077784E+10
    0.700013575698761603E-01   -0.199987620848256142E+01    0.202772158636158013E+10
    0.700004185899898018E-01   -0.199980391092370091E+01    0.202772158595902801E+10
    0.699788012593726139E-01   -0.200015456381643020E+01    0.202772158701889753E+10
    0.699788012593726139E-01   -0.200015456381643020E+01    0.202772158701889753E+10
    0.699684008371884020E-01   -0.200023558917549771E+01    0.202772158609774446E+10
    0.699919778114673208E-01   -0.199980732998084676E+01    0.202772158571724391E+10
    0.699788122296432086E-01   -0.200046620701259670E+01    0.202772158605112004E+10
    0.699751426949938721E-01   -0.200000074642121994E+01    0.202772158561158156E+10
    0.699993178742618488E-01   -0.200013165003984739E+01    0.202772158655299783E+10
    0.700023811417600089E-01   -0.199987652380647773E+01    0.202772158630974197E+10
    0.699636638637431141E-01   -0.200030548465062985E+01    0.202772158556032515E+10
    0.699729848642203361E-01   -0.200025592858284540E+01    0.202772158671080709E+10
    0.699729848642203361E-01   -0.200025592858284540E+01    0.202772158671080709E+10
    0.699895544330634695E-01   -0.200007434616623847E+01    0.202772158724364543E+10
    0.699895544330634695E-01   -0.200007434616623847E+01    0.202772158724364543E+10
    0.699931105579719853E-01   -0.200017161333823523E+01    0.202772158701569295E+10
    0.699931105579719853E-01   -0.200017161333823523E+01    0.202772158701569295E+10
    0.700037673572274644E-01   -0.200001945482679133E+01    0.202772158634135032E+10
    0.699781706209469251E-01   -0.200000450559083376E+01    0.202772158611571407E+10
    0.699861934313657091E-01   -0.200023488803207883E+01    0.202772158717231798E+10
    0.699861934313657091E-01   -0.200023488803207883E+01    0.202772158717231798E+10
    0.700015081664919631E-01   -0.200019732436775755E+01    0.202772158584409523E+10
    0.699680260610127391E-01   -0.200051173364557755E+01    0.202772158566672254E+10
    0.699875737583801061E-01   -0.200012632408911273E+01    0.202772158729873419E+10
    0.699875737583801061E-01   -0.200012632408911273E+01    0.202772158729873419E+10
    0.699875737583801061E-01   -0.200012632408911273E+01    0.202772158729873419E+10
    0.699745839136403230E-01   -0.200011605434621664E+01    0.202772158641725802E+10
    0.699793845426443795E-01   -0.200036554902475672E+01    0.202772158675322843E+10
    0.699793845426443795E-01   -0.200036554902475672E+01    0.202772158675322843E+10
    0.699843232424675471E-01   -0.199995734023019622E+01    0.202772158645016694E+10
    0.699575886543629816E-01   -0.200048201053397356E+01    0.202772158466011333E+10
    0.699771976584039890E-01   -0.200007220326961921E+01    0.202772158648870349E+10
    0.699762545321524210E-01   -0.200035633643841848E+01    0.202772158677260470E+10
    0.699857034209912798E-01   -0.199998568954435463E+01    0.202772158676504087E+10
    0.699857034209912798E-01   -0.199998568954435463E+01    0.202772158676504087E+10
    0.699751620072712327E-01   -0.200014439745521422E+01    0.202772158663294554E+10
    0.699751620072712327E-01   -0.200014439745521422E+01    0.202772158663294554E+10
    0.699828101394053687E-01   -0.200024258965176571E+01    0.202772158719884801E+10
    0.699828101394053687E-01   -0.200024258965176571E+01    0.202772158719884801E+10
    0.699675795636835324E-01   -0.200045252927077044E+01    0.202772158595175743E+10
    0.699782227235798415E-01   -0.200058329655585432E+01    0.202772158480695987E+10
    0.699820265272408509E-01   -0.200001472259101476E+01    0.202772158664670777E+10
    0.699973845229805575E-01   -0.200009573662215701E+01    0.202772158687504387E+10
    0.699813353380778075E-01   -0.200012957538977965E+01    0.202772158712441993E+10
    0.699813353380778075E-01   -0.200012957538977965E+01    0.202772158712441993E+10
    0.699813353380778075E-01   -0.200012957538977965E+01    0.202772158712441993E+10
    0.699764927243257395E-01   -0.200055527672077638E+01    0.202772158526347661E+10
    0.699847870268452132E-01   -0.199989318115533088E+01    0.202772158592281151E+10
    0.699902585241784087E-01   -0.200003218400118143E+01    0.202772158715201998E+10
    0.699902585241784087E-01   -0.200003218400118143E+01    0.202772158715201998E+10
    0.699985837831920837E-01   -0.200019379298092659E+01    0.202772158632088947E+10
    0.699649602163209539E-01   -0.200054711352735737E+01    0.202772158525754309E+10
    0.699883041915954907E-01   -0.200032056552994320E+01    0.202772158661611223E+10
    0.699883041915954907E-01   -0.200032056552994320E+01    0.202772158661611223E+10
    0.700114359009900850E-01   -0.200004324125676369E+01    0.202772158495946407E+10
    0.699630534217215577E-01   -0.200049499802542385E+01    0.202772158536835933E+10
    0.699703352894513325E-01   -0.200035396645348484E+01    0.202772158645120740E+10
    0.699703352894513325E-01   -0.200035396645348484E+01    0.202772158645120740E+10
    0.700042978015061185E-01   -0.200000082964069925E+01    0.202772158630433226E+10
    0.699874804911889414E-01   -0.199997166516252634E+01    0.202772158679098654E+10
    0.699765670873457590E-01   -0.200042018176917757E+01    0.202772158645176315E+10
    0.699773701199363635E-01   -0.200053594418187508E+01    0.202772158543099809E+10
    0.699926646388502882E-01   -0.200028940751037787E+01    0.202772158641103888E+10
    0.699771428160452930E-01   -0.200040241185826062E+01    0.202772158655898309E+10
    0.699983421461363026E-01   -0.199989337031935399E+01    0.202772158654628897E+10
    0.699983421461363026E-01   -0.199989337031935399E+01    0.202772158654628897E+10
    0.699595318268022015E-01   -0.200041048046343484E+01    0.202772158502217031E+10
    0.700038237152172116E-01   -0.200005757818177976E+01    0.202772158623766088E+10
    0.699725989071171839E-01   -0.200028107399389654E+01    0.202772158669319177E+10
    0.699934855189145305E-01   -0.199989760360877256E+01    0.202772158656551933E+10
    0.700060705186816429E-01   -0.199968181913896892E+01    0.202772158481834722E+10
    0.699990124917549278E-01   -0.199990107981301257E+01    0.202772158656366992E+10
    0.699990124917549278E-01   -0.199990107981301257E+01    0.202772158656366992E+10
    0.699840181322326088E-01   -0.200031359066030490E+01    0.202772158691767740E+10
    0.699840181322326088E-01   -0.200031359066030490E+01    0.202772158691767740E+10
    0.700024864925071627E-01   -0.200012388370684668E+01    0.202772158615396404E+10
    0.700053709716971367E-01   -0.199985115463065810E+01    0.202772158600861049E+10
    0.699949422641963359E-01   -0.200010149782916535E+01    0.202772158705637145E+10
    0.699949422641963359E-01   -0.200010149782916535E+01    0.202772158705637145E+10
    0.699821185472715296E-01   -0.200021012826747047E+01    0.202772158723592758E+10
    0.699821185472715296E-01   -0.200021012826747047E+01    0.202772158723592758E+10
    0.699821185472715296E-01   -0.200021012826747047E+01    0.202772158723592758E+10
    0.699969968741575022E-01   -0.200023506646972038E+01    0.202772158626241183E+10
    0.699698502760285057E-01   -0.200047054890821485E+01    0.202772158600314021E+10
    0.699956136574724080E-01   -0.200031560641060402E+01    0.202772158578505325E+10
    0.699815950589332825E-01   -0.200017894241124417E+01    0.202772158721940660E+10
    0.699815950589332825E-01   -0.200017894241124417E+01    0.202772158721940660E+10
    0.700014854267800302E-01   -0.199969617970787716E+01    0.202772158496863270E+10
    0.699837020769283752E-01   -0.200039880203244458E+01    0.202772158636126900E+10
    0.699837020769283752E-01   -0.200039880203244458E+01    0.202772158636126900E+10
    0.699712204381165992E-01   -0.200031958038531421E+01    0.202772158656447530E+10
    0.700006458127658410E-01   -0.199984397003685821E+01    0.202772158622178030E+10
    0.699921824301622669E-01   -0.199994304210557949E+01    0.202772158680927110E+10
    0.699921824301622669E-01   -0.199994304210557949E+01    0.202772158680927110E+10
    0.699675436718430327E-01   -0.200026169413549404E+01    0.202772158605551600E+10
    0.699720729904691613E-01   -0.200008629487209078E+01    0.202772158583688879E+10
    0.699764267319551853E-01   -0.200051448438648549E+01    0.202772158569596982E+10
    0.699939430756103820E-01   -0.199987562195119750E+01    0.202772158642542410E+10
    0.699939430756103820E-01   -0.199987562195119750E+01    0.202772158642542410E+10
    0.699713171054373445E-01   -0.200020240843548969E+01    0.202772158638926601E+10
    0.699854878686535647E-01   -0.199995071618391407E+01    0.202772158650379300E+10
    0.699854878686535647E-01   -0.199995071618391407E+01    0.202772158650379300E+10
    0.699678890088415856E-01   -0.200012212836952763E+01    0.202772158534874463E+10
    0.699739350234686724E-01   -0.200035137494596960E+01    0.202772158670164227E+10
    0.699739350234686724E-01   -0.200035137494596960E+01    0.202772158670164227E+10
    0.700037118731142438E-01   -0.199998463864796960E+01    0.202772158638781047E+10
    0.699810823460826764E-01   -0.200026131322009348E+01    0.202772158714688873E+10
    0.699810823460826764E-01   -0.200026131322009348E+01    0.202772158714688873E+10
    0.700024196832909340E-01   -0.200011165485434006E+01    0.202772158622442937E+10
    0.699902254424338566E-01   -0.199994756519662431E+01    0.202772158677675509E+10
    0.699902254424338566E-01   -0.199994756519662431E+01    0.202772158677675509E+10
    0.700103879710101129E-01   -0.199990705143349423E+01    0.202772158554064941E+10
    0.699943374376920530E-01   -0.200017438311950002E+01    0.202772158690470362E+10
    0.699943374376920530E-01   -0.200017438311950002E+01    0.202772158690470362E+10
    0.699825272680826005E-01   -0.200019529922577810E+01    0.202772158725155568E+10
    0.699825272680826005E-01   -0.200019529922577810E+01    0.202772158725155568E+10
    0.699825272680826005E-01   -0.200019529922577810E+01    0.202772158725155568E+10
    0.699959528323506192E-01   -0.200008820048403280E+01    0.202772158700490975E+10
    0.699959528323506192E-01   -0.200008820048403280E+01    0.202772158700490975E+10
    0.699710277980860329E-01   -0.200025930838316413E+01    0.202772158650929904E+10
    0.699734986220500316E-01   -0.200020161954878439E+01    0.202772158665389347E+10
    0.699799815558408006E-01   -0.200025100788495891E+01    0.202772158714316726E+10
    0.699799815558408006E-01   -0.200025100788495891E+01    0.202772158714316726E+10
    0.700130557694878392E-01   -0.199972647842611195E+01    0.202772158471150899E+10
    0.700096576666490861E-01   -0.199972375113472012E+01    0.202772158500195241E+10
    0.699894064425187895E-01   -0.199979770238270049E+01    0.202772158538027191E+10
    0.700006775521730823E-01   -0.199989556132309865E+01    0.202772158647443151E+10
    0.699638414335743281E-01   -0.200028138236429420E+01    0.202772158551343989E+10
    0.699879482536077402E-01   -0.200015511595685247E+01    0.202772158728874254E+10
    0.699879482536077402E-01   -0.200015511595685247E+01    0.202772158728874254E+10
    0.699879482536077402E-01   -0.200015511595685247E+01    0.202772158728874254E+10
    0.699918621212967246E-01   -0.200018428733224596E+01    0.202772158706188345E+10
    0.699918621212967246E-01   -0.200018428733224596E+01    0.202772158706188345E+10
    0.699833069715635886E-01   -0.200042171089013010E+01    0.202772158619169116E+10
    0.699854441836976621E-01   -0.200005877067812143E+01    0.202772158711534286E+10
    0.699854441836976621E-01   -0.200005877067812143E+01    0.202772158711534286E+10
    0.699962379455931760E-01   -0.200020587822384321E+01    0.202772158655146885E+10
    0.700081912147627466E-01   -0.200010170840848467E+01    0.202772158527557206E+10
    0.700010076127969838E-01   -0.199999705088452195E+01    0.202772158665653062E+10
    0.700111741362508255E-01   -0.199971452223867274E+01    0.202772158481988740E+10
    0.699856041115834021E-01   -0.200021828638205079E+01    0.202772158723085904E+10
    0.699856041115834021E-01   -0.200021828638205079E+01    0.202772158723085904E+10
    0.700015701483044789E-01   -0.199971266139537285E+01    0.202772158514677143E+10
    0.699616614840178203E-01   -0.200048874916019059E+01    0.202772158523194933E+10
    0.699912033551084722E-01   -0.199989774156696143E+01    0.202772158648358941E+10
    0.699912033551084722E-01   -0.199989774156696143E+01    0.202772158648358941E+10
    0.699854714717421111E-01   -0.200024838436883989E+01    0.202772158714934945E+10
    0.699854714717421111E-01   -0.200024838436883989E+01    0.202772158714934945E+10
    0.699818732818257849E-01   -0.199983078323537278E+01    0.202772158477652645E+10
    0.699873856276354983E-01   -0.199982681632776327E+01    0.202772158550128341E+10
    0.699866739127008447E-01   -0.200031701976565479E+01    0.202772158676125312E+10
    0.700015413005117965E-01   -0.200015173291338222E+01    0.202772158614422154E+10
    0.700014874187213504E-01   -0.199977568657869575E+01    0.202772158572907233E+10
    0.699918265542173179E-01   -0.199985354932426773E+01    0.202772158615553117E+10
    0.699993109772157479E-01   -0.199991966085035777E+01    0.202772158662665606E+10
    0.699993109772157479E-01   -0.199991966085035777E+01    0.202772158662665606E+10
    0.699986101474719402E-01   -0.199997386010726963E+01    0.202772158680819273E+10
    0.699986101474719402E-01   -0.199997386010726963E+01    0.202772158680819273E+10
    0.699786887953984110E-01   -0.200006268087067163E+01    0.202772158660480499E+10
    0.699844523593552009E-01   -0.200033700806053538E+01    0.202772158676460433E+10
    0.699722209007979240E-01   -0.200025663627021011E+01    0.202772158663532114E+10
    0.699911183174792562E-01   -0.199985635086782487E+01    0.202772158613713574E+10
    0.700086242036300349E-01   -0.199973581381834720E+01    0.202772158515726805E+10
    0.699925958357139749E-01   -0.199996970500541771E+01    0.202772158694418573E+10
    0.699925958357139749E-01   -0.199996970500541771E+01    0.202772158694418573E+10
    0.699718528040178256E-01   -0.200062182461065063E+01    0.202772158468399143E+10
    0.699726159014841254E-01   -0.200046099080113571E+01    0.202772158615496302E+10
    0.700140006179009455E-01   -0.199983220442737064E+01    0.202772158494408727E+10
    0.699812160655890469E-01   -0.200038804463577868E+01    0.202772158657179189E+10
    0.699812160655890469E-01   -0.200038804463577868E+01    0.202772158657179189E+10
    0.699802762687528196E-01   -0.200040007473305259E+01    0.202772158652094531E+10
    0.700094986576317996E-01   -0.199994075159733775E+01    0.202772158565500045E+10
    0.699981483582713393E-01   -0.199993277083524212E+01    0.202772158671871781E+10
    0.699981483582713393E-01   -0.199993277083524212E+01    0.202772158671871781E+10
    0.699926675953745497E-01   -0.199988783253695601E+01    0.202772158647245431E+10
    0.699926675953745497E-01   -0.199988783253695601E+01    0.202772158647245431E+10
    0.699695673026953652E-01   -0.200045102323473145E+01    0.202772158609047151E+10
    0.699818366367992162E-01   -0.200007985337735583E+01    0.202772158698581100E+10
    0.699818366367992162E-01   -0.200007985337735583E+01    0.202772158698581100E+10
    0.700054049174077681E-01   -0.200014352750391211E+01    0.202772158553607726E+10
    0.699999697096155005E-01   -0.200018456776451714E+01    0.202772158617956352E+10
    0.699642597361020829E-01   -0.200015399240214542E+01    0.202772158484192371E+10
    0.699841360823877795E-01   -0.199993414552890947E+01    0.202772158623801017E+10
    0.699898262749503869E-01   -0.200041265010518643E+01    0.202772158561422110E+10
    0.699674235075475465E-01   -0.200015896800795012E+01    0.202772158553179812E+10
    0.699840318716343779E-01   -0.200025622289510530E+01    0.202772158715496874E+10
    0.699840318716343779E-01   -0.200025622289510530E+01    0.202772158715496874E+10
    0.699827516323779930E-01   -0.200027901129381469E+01    0.202772158709810615E+10
    0.699827516323779930E-01   -0.200027901129381469E+01    0.202772158709810615E+10
    0.699710287608571457E-01   -0.200042560467399433E+01    0.202772158628675890E+10
    0.700001079751001731E-01   -0.199993077075543901E+01    0.202772158662376904E+10
    0.700001079751001731E-01   -0.199993077075543901E+01    0.202772158662376904E+10
    0.700006963370793794E-01   -0.200005927139332940E+01    0.202772158662398529E+10
    0.700006963370793794E-01   -0.200005927139332940E+01    0.202772158662398529E+10
    0.699856918516628401E-01   -0.200032096224360956E+01    0.202772158679689121E+10
    0.699642452661028424E-01   -0.200028997014037913E+01    0.202772158561360288E+10
    0.700026283303605973E-01   -0.199998021468107012E+01    0.202772158650287080E+10
    0.700068446615858958E-01   -0.199984844369136283E+01    0.202772158587399983E+10
    0.699944778710997612E-01   -0.200030445035750581E+01    0.202772158605592823E+10
    0.699823089199383408E-01   -0.200007281838311535E+01    0.202772158698957086E+10
    0.699823089199383408E-01   -0.200007281838311535E+01    0.202772158698957086E+10
    0.699927435296121975E-01   -0.200009591150407218E+01    0.202772158718295574E+10
    0.699927435296121975E-01   -0.200009591150407218E+01    0.202772158718295574E+10
    0.699927435296121975E-01   -0.200009591150407218E+01    0.202772158718295574E+10
    0.699977479512919887E-01   -0.199986963837376486E+01    0.202772158642529106E+10
    0.699871011225147305E-01   -0.199989017861483731E+01    0.202772158613285971E+10
    0.699981687001284270E-01   -0.199981106933178232E+01    0.202772158601379442E+10
    0.699634066320010267E-01   -0.200051850805713016E+01    0.202772158529878759E+10
    0.699975235124610656E-01   -0.200006407636472794E+01    0.202772158691561031E+10
    0.700000488407767629E-01   -0.200017593248981029E+01    0.202772158622263670E+10
    0.699597399304609374E-01   -0.200046128891784214E+01    0.202772158503209352E+10
    0.699776939895459804E-01   -0.200004440771017222E+01    0.202772158636379647E+10
    0.699633984408846582E-01   -0.200047732550745039E+01    0.202772158547095227E+10
    0.699801536750608300E-01   -0.200027230517116017E+01    0.202772158710922027E+10
    0.699801536750608300E-01   -0.200027230517116017E+01    0.202772158710922027E+10
    0.699801536750608300E-01   -0.200027230517116017E+01    0.202772158710922027E+10
    0.699649325097867064E-01   -0.200028247118001445E+01    0.202772158570625353E+10
    0.699721286461625763E-01   -0.200019791304658057E+01    0.202772158647839904E+10
    0.699912387639693989E-01   -0.200045424045760534E+01    0.202772158489996219E+10
    0.699852532566438562E-01   -0.200041437278007805E+01    0.202772158610387540E+10
    0.699985183701910263E-01   -0.200027448757136561E+01    0.202772158570317888E+10
    0.699779834278707047E-01   -0.200030129442623839E+01    0.202772158699185109E+10
    0.699779834278707047E-01   -0.200030129442623839E+01    0.202772158699185109E+10
    0.700020314150565093E-01   -0.199984527352447117E+01    0.202772158618134141E+10
    0.699938528243308211E-01   -0.200033016553657461E+01    0.202772158590788722E+10
    0.699961254245022313E-01   -0.199978817602366732E+01    0.202772158576016235E+10
    0.699886514609559807E-01   -0.200012181515451815E+01    0.202772158729021502E+10
    0.699886514609559807E-01   -0.200012181515451815E+01    0.202772158729021502E+10
    0.699886514609559807E-01   -0.200012181515451815E+01    0.202772158729021502E+10
    0.699834563342976029E-01   -0.200041339860951339E+01    0.202772158625444198E+10
    0.699712129089497814E-01   -0.200014977972256780E+01    0.202772158612523150E+10
    0.699865741334363550E-01   -0.199986330145179814E+01    0.202772158581385255E+10
    0.700028425283061445E-01   -0.200001892687008720E+01    0.202772158645369387E+10
    0.700039392390672671E-01   -0.200009744009707191E+01    0.202772158606105638E+10
    0.699595402379169506E-01   -0.200051937078984210E+01    0.202772158485909486E+10
    0.700050640761941956E-01   -0.199995582743272848E+01    0.202772158624132228E+10
    0.699843593314315865E-01   -0.199980840285622996E+01    0.202772158487185097E+10
    0.699721744676923829E-01   -0.200050370811870870E+01    0.202772158584701300E+10
    0.699721302000620160E-01   -0.200042298446331657E+01    0.202772158634986663E+10
    0.699903283361713868E-01   -0.199997242944807496E+01    0.202772158691748881E+10
    0.699903283361713868E-01   -0.199997242944807496E+01    0.202772158691748881E+10
    0.699952287082099694E-01   -0.200016557055834276E+01    0.202772158685790682E+10
    0.699952287082099694E-01   -0.200016557055834276E+01    0.202772158685790682E+10
    0.699714949120372881E-01   -0.200052632542808873E+01    0.202772158565877223E+10
    0.700153782992158219E-01   -0.199990830877329984E+01    0.202772158466501021E+10
    0.699891076317122607E-01   -0.199998230148893263E+01    0.202772158692780685E+10
    0.699891076317122607E-01   -0.199998230148893263E+01    0.202772158692780685E+10
    0.699875813686757081E-01   -0.200043593726956992E+01    0.202772158564072895E+10
    0.699686131591179816E-01   -0.200040517657618366E+01    0.202772158619656658E+10
    0.699843296676382481E-01   -0.200038081885013419E+01    0.202772158646402836E+10
    0.699633140135075132E-01   -0.200031541019825454E+01    0.202772158552726078E+10
    0.699602634867015072E-01   -0.200027934967373433E+01    0.202772158479780102E+10
    0.700069291131103499E-01   -0.199992583701776638E+01    0.202772158601312995E+10
    0.699933725725942063E-01   -0.199997594250681487E+01    0.202772158697033095E+10
    0.699933725725942063E-01   -0.199997594250681487E+01    0.202772158697033095E+10
    0.699745461864890450E-01   -0.200038760681223593E+01    0.202772158659734678E+10
    0.699806293531939766E-01   -0.200042719029416283E+01    0.202772158630220962E+10
    0.699763838688175904E-01   -0.200002680847195968E+01    0.202772158604563618E+10
    0.699749763380967116E-01   -0.200016005708897815E+01    0.202772158667694998E+10
    0.699749763380967116E-01   -0.200016005708897815E+01    0.202772158667694998E+10
    0.699665011367590489E-01   -0.200054610104412234E+01    0.202772158535573673E+10
    0.700038881144019187E-01   -0.199991282237204793E+01    0.202772158631281233E+10
    0.699662660563493688E-01   -0.200042517412111387E+01    0.202772158592766595E+10
    0.699840437586719405E-01   -0.200035894387366042E+01    0.202772158664220357E+10
    0.699840437586719405E-01   -0.200035894387366042E+01    0.202772158664220357E+10
    0.699996183849584536E-01   -0.199993616334929847E+01    0.202772158666517138E+10
    0.699996183849584536E-01   -0.199993616334929847E+01    0.202772158666517138E+10
    0.699704127151443839E-01   -0.200018634797292805E+01    0.202772158619424629E+10
    0.699817922532758874E-01   -0.200017115397914402E+01    0.202772158722081280E+10
    0.699817922532758874E-01   -0.200017115397914402E+01    0.202772158722081280E+10
    0.699817922532758874E-01   -0.200017115397914402E+01    0.202772158722081280E+10
    0.699659225716915967E-01   -0.200049600232125790E+01    0.202772158562550783E+10
    0.699834642043987848E-01   -0.199997945030911239E+01    0.202772158653730941E+10
    0.699934077517420650E-01   -0.199989616849588181E+01    0.202772158655402160E+10
    0.700012204802952093E-01   -0.199996081220583655E+01    0.202772158661325622E+10
    0.699888344713209126E-01   -0.200012078303434748E+01    0.202772158728782439E+10
    0.699888344713209126E-01   -0.200012078303434748E+01    0.202772158728782439E+10
    0.699888344713209126E-01   -0.200012078303434748E+01    0.202772158728782439E+10
    0.699635593101152614E-01   -0.200044549559543583E+01    0.202772158558082223E+10
    0.699930652498697708E-01   -0.200026378267975424E+01    0.202772158655012894E+10
    0.699930652498697708E-01   -0.200026378267975424E+01    0.202772158655012894E+10
    0.699773225313469610E-01   -0.200005442031056724E+01    0.202772158638664389E+10
    0.700046387485179916E-01   -0.199990230519399681E+01    0.202772158622409606E+10
    0.699780026687717716E-01   -0.200005041342676293E+01    0.202772158644478774E+10
    0.699883472377826332E-01   -0.200026697974049661E+01    0.202772158694018769E+10
    0.699883472377826332E-01   -0.200026697974049661E+01    0.202772158694018769E+10
    0.700113467122074618E-01   -0.199985401214304481E+01    0.202772158536770725E+10
    0.699829732372211355E-01   -0.200044220089104208E+01    0.202772158602653718E+10
    0.699707669556852430E-01   -0.200036362495144182E+01    0.202772158646947527E+10
    0.699977795009784493E-01   -0.200026382011106740E+01    0.202772158591913414E+10
    0.699646472146659010E-01   -0.200031997897540847E+01    0.202772158575600696E+10
    0.699856258177760232E-01   -0.200030210570526634E+01    0.202772158690901709E+10
    0.699856258177760232E-01   -0.200030210570526634E+01    0.202772158690901709E+10
    0.699998413352403426E-01   -0.199970719610541181E+01    0.202772158504784489E+10
    0.699757193865987309E-01   -0.200012480109934998E+01    0.202772158660662293E+10
    0.699865791980879420E-01   -0.200032989399711703E+01    0.202772158668323565E+10
    0.699865791980879420E-01   -0.200032989399711703E+01    0.202772158668323565E+10
    0.699615523194012101E-01   -0.200036460029927810E+01    0.202772158532509327E+10
    0.699677434619256355E-01   -0.200037354655432154E+01    0.202772158617770052E+10
    0.699948117500589356E-01   -0.199996831873662728E+01    0.202772158692888880E+10
    0.699948117500589356E-01   -0.199996831873662728E+01    0.202772158692888880E+10
    0.699958291727716259E-01   -0.199985771220998210E+01    0.202772158633821201E+10
    0.699627567759282393E-01   -0.200023693826934768E+01    0.202772158509606194E+10
    0.699875719827810078E-01   -0.200000516408516305E+01    0.202772158698017740E+10
    0.699875719827810078E-01   -0.200000516408516305E+01    0.202772158698017740E+10
    0.699988863581247206E-01   -0.199991789127659203E+01    0.202772158663697243E+10
    0.699988863581247206E-01   -0.199991789127659203E+01    0.202772158663697243E+10
    0.699860562413228138E-01   -0.200015200867265541E+01    0.202772158730285907E+10
    0.699860562413228138E-01   -0.200015200867265541E+01    0.202772158730285907E+10
    0.699860562413228138E-01   -0.200015200867265541E+01    0.202772158730285907E+10
    0.699890592136372530E-01   -0.200005037169495736E+01    0.202772158719116640E+10
    0.699890592136372530E-01   -0.200005037169495736E+01    0.202772158719116640E+10
    0.699890592136372530E-01   -0.200005037169495736E+01    0.202772158719116640E+10
    0.700001602073656026E-01   -0.200010274927280385E+01    0.202772158656311035E+10
    0.699944231640060172E-01   -0.200032771999726577E+01    0.202772158584846330E+10
    0.699762073355059827E-01   -0.200039423533422145E+01    0.202772158659989500E+10
    0.699677901223295651E-01   -0.200040449558945888E+01    0.202772158612585282E+10
    0.700040918593124450E-01   -0.200004121742747465E+01    0.202772158624940014E+10
    0.699839038240467060E-01   -0.199983050805658991E+01    0.202772158509254909E+10
    0.699782062186666554E-01   -0.200004791185370046E+01    0.202772158645265269E+10
    0.699637499108334421E-01   -0.200039128999034865E+01    0.202772158567859435E+10
    0.699951527560563058E-01   -0.200010451224653352E+01    0.202772158703704476E+10
    0.699951527560563058E-01   -0.200010451224653352E+01    0.202772158703704476E+10
    0.699778365681041625E-01   -0.200050574038390216E+01    0.202772158572258615E+10
    0.699972468272029302E-01   -0.200013950259565298E+01    0.202772158675761580E+10
    0.699972468272029302E-01   -0.200013950259565298E+01    0.202772158675761580E+10
    0.700018150416829577E-01   -0.200002791980745975E+01    0.202772158655661869E+10
    0.699996172343314571E-01   -0.200029954804642074E+01    0.202772158525698686E+10
    0.700031570103253065E-01   -0.200023105298349613E+01    0.202772158525343204E+10
    0.700095341660247478E-01   -0.199974676329988377E+01    0.202772158516121674E+10
    0.699827325421053248E-01   -0.199998788536244554E+01    0.202772158652831507E+10
    0.699825179520623120E-01   -0.200009667214558817E+01    0.202772158709596562E+10
    0.699825179520623120E-01   -0.200009667214558817E+01    0.202772158709596562E+10
    0.699933186167063098E-01   -0.199988838686199522E+01    0.202772158649823165E+10
    0.699933186167063098E-01   -0.199988838686199522E+01    0.202772158649823165E+10
    0.699848500065703011E-01   -0.200018197329838898E+01    0.202772158728881216E+10
    0.699848500065703011E-01   -0.200018197329838898E+01    0.202772158728881216E+10
    0.699848500065703011E-01   -0.200018197329838898E+01    0.202772158728881216E+10
    0.699617821193505435E-01   -0.200037037588584177E+01    0.202772158537129211E+10
    0.699856358668445450E-01   -0.200018484555164910E+01    0.202772158728611374E+10
    0.699856358668445450E-01   -0.200018484555164910E+01    0.202772158728611374E+10
    0.699856358668445450E-01   -0.200018484555164910E+01    0.202772158728611374E+10
    0.699979673267109859E-01   -0.199993216357040282E+01    0.202772158672279882E+10
    0.700041342236318309E-01   -0.199974013318015942E+01    0.202772158539226532E+10
    0.700017722220640654E-01   -0.199983528272476008E+01    0.202772158613591504E+10
    0.699798604267996560E-01   -0.199994178900597852E+01    0.202772158577296090E+10
    0.699719231492460514E-01   -0.200018071204355508E+01    0.202772158638345218E+10
    0.700084910490766793E-01   -0.199975752832640907E+01    0.202772158530736756E+10
    0.699835302173893448E-01   -0.200017709132266219E+01    0.202772158727456284E+10
    0.699835302173893448E-01   -0.200017709132266219E+01    0.202772158727456284E+10
    0.699709820218259448E-01   -0.200017179657983490E+01    0.202772158620838428E+10
    0.699985402184908623E-01   -0.200008009633726402E+01    0.202772158680149221E+10
    0.700026457899471377E-01   -0.199986142236908826E+01    0.202772158623085856E+10
    0.700039628704041961E-01   -0.199999118098456741E+01    0.202772158635486197E+10
    0.699965719744466697E-01   -0.200016339749145544E+01    0.202772158673155046E+10
    0.699662694715446898E-01   -0.200016418734612778E+01    0.202772158534397793E+10
    0.699689533150308907E-01   -0.200029011982137561E+01    0.202772158630996943E+10
    0.699765588182635484E-01   -0.200025391876868142E+01    0.202772158699034524E+10
    0.699765588182635484E-01   -0.200025391876868142E+01    0.202772158699034524E+10
    0.699810153032668081E-01   -0.200052688710345627E+01    0.202772158527472830E+10
    0.700028096992294652E-01   -0.199977473156482688E+01    0.202772158570005918E+10
    0.699701859238080204E-01   -0.200033401106177422E+01    0.202772158645971775E+10
    0.700048231736513094E-01   -0.199999343131611695E+01    0.202772158624809647E+10
    0.699909582082945680E-01   -0.200002173805365580E+01    0.202772158712500954E+10
    0.699909582082945680E-01   -0.200002173805365580E+01    0.202772158712500954E+10
    0.699942092780130171E-01   -0.200028267470562504E+01    0.202772158627452397E+10
    0.699766751651584307E-01   -0.200027979266275047E+01    0.202772158697963619E+10
    0.699766751651584307E-01   -0.200027979266275047E+01    0.202772158697963619E+10
    0.699613264936164159E-01   -0.200025915169991642E+01    0.202772158491959834E+10
    0.699878934653192231E-01   -0.199981727649680074E+01    0.202772158544757032E+10
    0.699830707897138860E-01   -0.199994832484054719E+01    0.202772158624670577E+10
    0.700011876889033019E-01   -0.200016940836941437E+01    0.202772158609083319E+10
    0.699971934423331971E-01   -0.200020604115118239E+01    0.202772158643122339E+10
    0.699971934423331971E-01   -0.200020604115118239E+01    0.202772158643122339E+10
    0.699903072916031599E-01   -0.200005150642262208E+01    0.202772158720012379E+10
    0.699903072916031599E-01   -0.200005150642262208E+01    0.202772158720012379E+10
    0.699903072916031599E-01   -0.200005150642262208E+01    0.202772158720012379E+10
    0.699985858603471844E-01   -0.199983341597791586E+01    0.202772158618414044E+10
    0.700069451088701500E-01   -0.200004063553487832E+01    0.202772158581965685E+10
    0.699902136127253383E-01   -0.200032531248994339E+01    0.202772158640103912E+10
    0.699910763298919464E-01   -0.200009996167385040E+01    0.202772158724102402E+10
    0.699910763298919464E-01   -0.200009996167385040E+01    0.202772158724102402E+10
    0.699910763298919464E-01   -0.200009996167385040E+01    0.202772158724102402E+10
    0.700107793128485062E-01   -0.199990653927278572E+01    0.202772158548141956E+10
    0.699639732911954554E-01   -0.200033371843292684E+01    0.202772158567472720E+10
    0.700052724745647004E-01   -0.199986935052627501E+01    0.202772158608026648E+10
    0.700015633829916273E-01   -0.200003205972580211E+01    0.202772158657797647E+10
    0.699881159054723256E-01   -0.200005077986451774E+01    0.202772158717691088E+10
    0.699881159054723256E-01   -0.200005077986451774E+01    0.202772158717691088E+10
    0.699994537372272685E-01   -0.199976364382081506E+01    0.202772158561885881E+10
    0.700090329822818103E-01   -0.199977482397585860E+01    0.202772158536255717E+10
    0.699956604176367875E-01   -0.200024166032812900E+01    0.202772158639377332E+10
    0.699992267144575603E-01   -0.200020443558653938E+01    0.202772158615756226E+10
    0.699797514757642264E-01   -0.199988787836651127E+01    0.202772158515403748E+10
    0.699799712892649750E-01   -0.200055223499481549E+01    0.202772158505590248E+10
    0.699761799219942165E-01   -0.200035838893433748E+01    0.202772158676286221E+10
    0.699739917876407158E-01   -0.200017911637256063E+01    0.202772158663639283E+10
    0.699819112695220097E-01   -0.200017977531940438E+01    0.202772158723153138E+10
    0.699819112695220097E-01   -0.200017977531940438E+01    0.202772158723153138E+10
    0.700018770155172443E-01   -0.200004967187431681E+01    0.202772158651056027E+10
    0.700018770155172443E-01   -0.200004967187431681E+01    0.202772158651056027E+10
    0.700082728979293939E-01   -0.200010522225908005E+01    0.202772158523571181E+10
    0.699865725130128097E-01   -0.199994587946766877E+01    0.202772158655502439E+10
    0.699865725130128097E-01   -0.199994587946766877E+01    0.202772158655502439E+10
    0.700042469904120918E-01   -0.200007125368437677E+01    0.202772158612739277E+10
    0.700058565714920117E-01   -0.199975867508039151E+01    0.202772158547480989E+10
    0.699877655628717010E-01   -0.199998337277500404E+01    0.202772158687517190E+10
    0.699877655628717010E-01   -0.199998337277500404E+01    0.202772158687517190E+10
    0.699740627272284199E-01   -0.200007238925556585E+01    0.202772158605387211E+10
    0.699979345111780421E-01   -0.200001617444405433E+01    0.202772158689932704E+10
    0.699979345111780421E-01   -0.200001617444405433E+01    0.202772158689932704E+10
    0.699628227401982994E-01   -0.200058194750265450E+01    0.202772158486713314E+10
    0.699853443033381234E-01   -0.200013111426668999E+01    0.202772158728391314E+10
    0.699853443033381234E-01   -0.200013111426668999E+01    0.202772158728391314E+10
    0.699795467692915368E-01   -0.200033773728432784E+01    0.202772158688816428E+10
    0.699795467692915368E-01   -0.200033773728432784E+01    0.202772158688816428E+10
    0.699984019141191571E-01   -0.199999907899992202E+01    0.202772158685617757E+10
    0.699905992358338808E-01   -0.200020814020241033E+01    0.202772158705912471E+10
    0.699905992358338808E-01   -0.200020814020241033E+01    0.202772158705912471E+10
    0.699666460724139988E-01   -0.200016874809671918E+01    0.202772158544943714E+10
    0.699784050282627607E-01   -0.199996695634735744E+01    0.202772158580747604E+10
    0.700010469320254125E-01   -0.200003190612210169E+01    0.202772158663263011E+10
    0.699909587267876637E-01   -0.199996330747667095E+01    0.202772158688802171E+10
    0.699909587267876637E-01   -0.199996330747667095E+01    0.202772158688802171E+10
    0.699847471411922800E-01   -0.200012171544294226E+01    0.202772158725739956E+10
    0.699847471411922800E-01   -0.200012171544294226E+01    0.202772158725739956E+10
    0.700075442298371958E-01   -0.199995106698083269E+01    0.202772158593027472E+10
    0.699747421443360912E-01   -0.200012747161960824E+01    0.202772158650016046E+10
    0.699740915638077388E-01   -0.200013973813957691E+01    0.202772158647947240E+10
    0.699763223493439362E-01   -0.200006737551499825E+01    0.202772158634443498E+10
    0.699857855949627544E-01   -0.200011512199093566E+01    0.202772158727229333E+10
    0.699857855949627544E-01   -0.200011512199093566E+01    0.202772158727229333E+10
    0.699857855949627544E-01   -0.200011512199093566E+01    0.202772158727229333E+10
    0.699883769919292936E-01   -0.200010509649010793E+01    0.202772158728358102E+10
    0.699883769919292936E-01   -0.200010509649010793E+01    0.202772158728358102E+10
    0.699883769919292936E-01   -0.200010509649010793E+01    0.202772158728358102E+10
    0.699890071259578056E-01   -0.199992269777503573E+01    0.202772158654982281E+10
    0.699766253542754985E-01   -0.200023344150739391E+01    0.202772158699040341E+10
    0.699766253542754985E-01   -0.200023344150739391E+01    0.202772158699040341E+10
    0.699833869098455130E-01   -0.200023198809310010E+01    0.202772158722095084E+10
    0.699833869098455130E-01   -0.200023198809310010E+01    0.202772158722095084E+10
    0.699879577113168422E-01   -0.200039003001609395E+01    0.202772158607162952E+10
    0.699715171724960144E-01   -0.200052595412388712E+01    0.202772158566209459E+10
    0.700056816840290697E-01   -0.199987944326401745E+01    0.202772158607392192E+10
    0.700056653666780299E-01   -0.200002899452108096E+01    0.202772158605932093E+10
    0.700016145887629448E-01   -0.199976843220185607E+01    0.202772158566850471E+10
    0.699896452444392358E-01   -0.199993591354598088E+01    0.202772158667763495E+10
    0.699950097533562215E-01   -0.199986915273045440E+01    0.202772158640497422E+10
    0.699912036838793439E-01   -0.200003741885866226E+01    0.202772158716602087E+10
    0.699912036838793439E-01   -0.200003741885866226E+01    0.202772158716602087E+10
    0.699862896241955634E-01   -0.200043646454659729E+01    0.202772158578157043E+10
    0.699954384899465626E-01   -0.200006848397090664E+01    0.202772158705712914E+10
    0.699954384899465626E-01   -0.200006848397090664E+01    0.202772158705712914E+10
    0.699682225488088283E-01   -0.200039816845831098E+01    0.202772158618041039E+10
    0.699882093916218417E-01   -0.200009557768768431E+01    0.202772158727334213E+10
    0.699882093916218417E-01   -0.200009557768768431E+01    0.202772158727334213E+10
    0.699882093916218417E-01   -0.200009557768768431E+01    0.202772158727334213E+10
    0.700042892592735028E-01   -0.199985457578245907E+01    0.202772158610106373E+10
    0.699894488120951369E-01   -0.199996654262534257E+01    0.202772158685641479E+10
    0.699773143659915414E-01   -0.200041554466319305E+01    0.202772158647728133E+10
    0.700032209774420905E-01   -0.200015000878972060E+01    0.202772158588391352E+10
    0.700139578085211545E-01   -0.199982223094641043E+01    0.202772158493641591E+10
    0.699975994064039736E-01   -0.200002840071660515E+01    0.202772158692580152E+10
    0.699975994064039736E-01   -0.200002840071660515E+01    0.202772158692580152E+10
    0.699946952998754812E-01   -0.200006229474152164E+01    0.202772158709917545E+10
    0.699946952998754812E-01   -0.200006229474152164E+01    0.202772158709917545E+10
    0.699924589913214074E-01   -0.200011554194214014E+01    0.202772158718090081E+10
    0.699924589913214074E-01   -0.200011554194214014E+01    0.202772158718090081E+10
    0.699924589913214074E-01   -0.200011554194214014E+01    0.202772158718090081E+10
    0.699630772595108974E-01   -0.200040177595833590E+01    0.202772158557998919E+10
    0.700104004696774362E-01   -0.199998328579247975E+01    0.202772158541912246E+10
    0.699690352582002240E-01   -0.200031640326267990E+01    0.202772158634304714E+10
    0.699829789739245672E-01   -0.200016332692703536E+01    0.202772158725548792E+10
    0.699829789739245672E-01   -0.200016332692703536E+01    0.202772158725548792E+10
    0.699829789739245672E-01   -0.200016332692703536E+01    0.202772158725548792E+10
    0.699987605551146003E-01   -0.199997158456587698E+01    0.202772158679544115E+10
    0.700084002002325373E-01   -0.199987423101019068E+01    0.202772158577847266E+10
    0.699879605309833425E-01   -0.200041518483796565E+01    0.202772158581976008E+10
    0.700064501409890794E-01   -0.199981697458633612E+01    0.202772158578052759E+10
    0.699671657302319838E-01   -0.200032770250025038E+01    0.202772158612362432E+10
    0.699749600860515852E-01   -0.200045311253050606E+01    0.202772158623445821E+10
    0.699690360913010762E-01   -0.200027073827199686E+01    0.202772158628689933E+10
    0.699935355040552931E-01   -0.199998900431745597E+01    0.202772158701465774E+10
    0.699935355040552931E-01   -0.199998900431745597E+01    0.202772158701465774E+10
    0.699893851038669579E-01   -0.200034618420371224E+01    0.202772158631580997E+10
    0.699804621968252438E-01   -0.200012051711229866E+01    0.202772158703990459E+10
    0.699804621968252438E-01   -0.200012051711229866E+01    0.202772158703990459E+10
    0.699804621968252438E-01   -0.200012051711229866E+01    0.202772158703990459E+10
    0.699920362196863322E-01   -0.200042987608991929E+01    0.202772158508311510E+10
    0.699663163012411715E-01   -0.200036120955013530E+01    0.202772158602408409E+10
    0.699899101084044961E-01   -0.199991776591725312E+01    0.202772158656527877E+10
    0.700006707920906301E-01   -0.200007411324592077E+01    0.202772158659148908E+10
    0.699772611374310932E-01   -0.200047304651159763E+01    0.202772158604754281E+10
    0.699709274801897929E-01   -0.200005914718106759E+01    0.202772158539991379E+10
    0.700118618720756425E-01   -0.199979203093644209E+01    0.202772158514577866E+10
    0.699736990408799109E-01   -0.199997975225509173E+01    0.202772158512946033E+10
    0.699892291736186195E-01   -0.199999672463039069E+01    0.202772158700180292E+10
    0.699892291736186195E-01   -0.199999672463039069E+01    0.202772158700180292E+10
    0.699968600104007022E-01   -0.199974161331796552E+01    0.202772158530956936E+10
    0.699822748087162577E-01   -0.200007771745292828E+01    0.202772158700813556E+10
    0.699822748087162577E-01   -0.200007771745292828E+01    0.202772158700813556E+10
    0.699822748087162577E-01   -0.200007771745292828E+01    0.202772158700813556E+10
    0.699983629670876961E-01   -0.199991150288897757E+01    0.202772158662882495E+10
    0.699983629670876961E-01   -0.199991150288897757E+01    0.202772158662882495E+10
    0.699977362451949525E-01   -0.200020807775339726E+01    0.202772158634600568E+10
    0.699806402578529579E-01   -0.200009878878034897E+01    0.202772158697370267E+10
    0.699806402578529579E-01   -0.200009878878034897E+01    0.202772158697370267E+10
    0.699949575375576477E-01   -0.200026496102043261E+01    0.202772158631506062E+10
    0.699913632708080852E-01   -0.200031756194279353E+01    0.202772158633841133E+10
    0.699818922052486969E-01   -0.200000643554235147E+01    0.202772158657715726E+10
    0.699818922052486969E-01   -0.200000643554235147E+01    0.202772158657715726E+10
    0.699728012822589951E-01   -0.200029158760698067E+01    0.202772158671196604E+10
    0.699623295748140611E-01   -0.200055837315123064E+01    0.202772158498125911E+10
    0.699777367405543110E-01   -0.200009627377970034E+01    0.202772158669046378E+10
    0.699777367405543110E-01   -0.200009627377970034E+01    0.202772158669046378E+10
    0.700060129715505963E-01   -0.200018477428108454E+01    0.202772158508834720E+10
    0.699860222437784507E-01   -0.200027601700129942E+01    0.202772158702047324E+10
    0.699860222437784507E-01   -0.200027601700129942E+01    0.202772158702047324E+10
    0.700051561258590166E-01   -0.200009792675551878E+01    0.202772158586025047E+10
    0.699970641589898745E-01   -0.200023899309721465E+01    0.202772158622418690E+10
    0.700068332948601546E-01   -0.199993397097923342E+01    0.202772158602769852E+10
    0.699756793808013478E-01   -0.199999839190294892E+01    0.202772158567939782E+10
    0.699872189117364263E-01   -0.199989037700390604E+01    0.202772158614548469E+10
    0.699947154872561372E-01   -0.199993422001352172E+01    0.202772158678860855E+10
    0.699985799053897961E-01   -0.199989519644063485E+01    0.202772158654935694E+10
    0.699985799053897961E-01   -0.199989519644063485E+01    0.202772158654935694E+10
    0.699748416914561799E-01   -0.200050859400291081E+01    0.202772158579507494E+10
    0.700074263099051269E-01   -0.199991293002665671E+01    0.202772158594468617E+10
    0.699986568973076234E-01   -0.199987419132165023E+01    0.202772158643963289E+10
    0.699986568973076234E-01   -0.199987419132165023E+01    0.202772158643963289E+10
    0.699954070368876136E-01   -0.199983504343159169E+01    0.202772158615411472E+10
    0.700020877872998548E-01   -0.199995670550174331E+01    0.202772158653801227E+10
    0.699774679371522185E-01   -0.200033383981992863E+01    0.202772158688269901E+10
    0.699774679371522185E-01   -0.200033383981992863E+01    0.202772158688269901E+10
    0.699965738918236768E-01   -0.199993044865088798E+01    0.202772158675266433E+10
    0.699965738918236768E-01   -0.199993044865088798E+01    0.202772158675266433E+10
    0.699920698858957496E-01   -0.200010618920089023E+01    0.202772158720573425E+10
    0.699920698858957496E-01   -0.200010618920089023E+01    0.202772158720573425E+10
    0.699920698858957496E-01   -0.200010618920089023E+01    0.202772158720573425E+10
    0.699795585696976336E-01   -0.200048039228568619E+01    0.202772158588279557E+10
    0.699736233692417470E-01   -0.200012589062072443E+01    0.202772158634256673E+10
    0.699880742607625062E-01   -0.200024286200035384E+01    0.202772158706740928E+10
    0.699880742607625062E-01   -0.200024286200035384E+01    0.202772158706740928E+10
    0.699861666367417312E-01   -0.199990105930984718E+01    0.202772158614512062E+10
    0.699888607549921798E-01   -0.200028755198324326E+01    0.202772158678905058E+10
    0.699888755399595691E-01   -0.199999310925206331E+01    0.202772158697332454E+10
    0.699888755399595691E-01   -0.199999310925206331E+01    0.202772158697332454E+10
    0.700013123186030428E-01   -0.200005535431962755E+01    0.202772158656352854E+10
    0.700013123186030428E-01   -0.200005535431962755E+01    0.202772158656352854E+10
    0.700008885462827107E-01   -0.199975265547010217E+01    0.202772158553190422E+10
    0.699844032017123002E-01   -0.200000586209091047E+01    0.202772158679492736E+10
    0.699844032017123002E-01   -0.200000586209091047E+01    0.202772158679492736E+10
    0.699937499310230027E-01   -0.199995940735462518E+01    0.202772158690348911E+10
    0.699692998872309957E-01   -0.200039345357007470E+01    0.202772158628433394E+10
    0.699982282776042547E-01   -0.199995064744976148E+01    0.202772158677270865E+10
    0.699982282776042547E-01   -0.199995064744976148E+01    0.202772158677270865E+10
    0.699681018840365848E-01   -0.200018658343887523E+01    0.202772158582506013E+10
    0.700043407462338785E-01   -0.199993377439933440E+01    0.202772158630510378E+10
    0.699797344088468887E-01   -0.200038640513921706E+01    0.202772158662629485E+10
    0.699717420296170067E-01   -0.200048872432487812E+01    0.202772158595113826E+10
    0.699827898385032982E-01   -0.200023568201643087E+01    0.202772158721256828E+10
    0.699827898385032982E-01   -0.200023568201643087E+01    0.202772158721256828E+10
    0.699598146056696346E-01   -0.200034722676184984E+01    0.202772158497137833E+10
    0.699731536172286533E-01   -0.200050672892871617E+01    0.202772158582748175E+10
    0.699809347863193376E-01   -0.200045710976577951E+01    0.202772158602434063E+10
    0.699687944387275274E-01   -0.200050156526742740E+01    0.202772158576826096E+10
    0.699840693296599203E-01   -0.199993817718750400E+01    0.202772158626621366E+10
    0.700011658976942980E-01   -0.199992413993450135E+01    0.202772158654298306E+10
    0.699750572269294269E-01   -0.200012003185593024E+01    0.202772158650079513E+10
    0.699750572269294269E-01   -0.200012003185593024E+01    0.202772158650079513E+10
    0.699876250043660053E-01   -0.200015019855017506E+01    0.202772158729670644E+10
    0.699876250043660053E-01   -0.200015019855017506E+01    0.202772158729670644E+10
    0.699876250043660053E-01   -0.200015019855017506E+01    0.202772158729670644E+10
    0.700085469010627848E-01   -0.199987127833166234E+01    0.202772158575580883E+10
    0.699854010145354449E-01   -0.199994097403111049E+01    0.202772158641924906E+10
    0.700091761207967400E-01   -0.199978550609909789E+01    0.202772158540359974E+10
    0.699804321614724140E-01   -0.200045116733244654E+01    0.202772158610739756E+10
    0.700055851620522557E-01   -0.199976884426953205E+01    0.202772158555834365E+10
    0.699763344267373966E-01   -0.200015659924387812E+01    0.202772158680831981E+10
    0.699763344267373966E-01   -0.200015659924387812E+01    0.202772158680831981E+10
    0.699870918050618518E-01   -0.200036057794068256E+01    0.202772158641482830E+10
    0.699967702329421237E-01   -0.200030048569410113E+01    0.202772158574730110E+10
    0.699808565543005717E-01   -0.200039266434804475E+01    0.202772158655287671E+10
    0.699808565543005717E-01   -0.200039266434804475E+01    0.202772158655287671E+10
    0.699747286220707421E-01   -0.200036471998823018E+01    0.202772158669411802E+10
    0.699763287619595553E-01   -0.200006578461736240E+01    0.202772158633427691E+10
    0.699752665239955080E-01   -0.200040746178541440E+01    0.202772158651744032E+10
    0.699937236880016911E-01   -0.199988093977438730E+01    0.202772158645730996E+10
    0.700110093675987283E-01   -0.200001824443524789E+01    0.202772158517334485E+10
    0.699958660621316925E-01   -0.199978195131810033E+01    0.202772158568801522E+10
    0.699863646773307146E-01   -0.200042822419729305E+01    0.202772158586001205E+10
    0.700035500177297321E-01   -0.200017359461791244E+01    0.202772158566264820E+10
    0.699919337168521810E-01   -0.200044428777333039E+01    0.202772158491542482E+10
    0.699783404489616040E-01   -0.200011511564682465E+01    0.202772158684185743E+10
    0.699760104593024346E-01   -0.200041169671865582E+01    0.202772158650203443E+10
    0.700067692285244875E-01   -0.200001965757819100E+01    0.202772158591866899E+10
    0.699870769946490251E-01   -0.199979800453664147E+01    0.202772158511438775E+10
    0.699915385289089781E-01   -0.200020076110106437E+01    0.202772158702439141E+10
    0.699915385289089781E-01   -0.200020076110106437E+01    0.202772158702439141E+10
    0.699874005212386546E-01   -0.200031466683354253E+01    0.202772158672651696E+10
    0.699874005212386546E-01   -0.200031466683354253E+01    0.202772158672651696E+10
    0.700072922174780898E-01   -0.199985475426865911E+01    0.202772158585146570E+10
    0.699845412714978632E-01   -0.200037153903689457E+01    0.202772158652145505E+10
    0.699845412714978632E-01   -0.200037153903689457E+01    0.202772158652145505E+10
    0.700003804272921887E-01   -0.200001160264048039E+01    0.202772158671097255E+10
    0.700003804272921887E-01   -0.200001160264048039E+01    0.202772158671097255E+10
    0.699731410100368073E-01   -0.200057102008257814E+01    0.202772158522203732E+10
    0.699659513008003414E-01   -0.200038889500153161E+01    0.202772158596110010E+10
    0.700005971242064762E-01   -0.200006121872084641E+01    0.202772158663065457E+10
    0.699703012604157570E-01   -0.200019757286015221E+01    0.202772158622820854E+10
    0.699993880592525569E-01   -0.200013362391350569E+01    0.202772158653580570E+10
    0.699867467821090883E-01   -0.199990155888378496E+01    0.202772158620467758E+10
    0.699947810496035216E-01   -0.199989398575119459E+01    0.202772158656679702E+10
    0.700065641526074339E-01   -0.199990859436698010E+01    0.202772158604112172E+10
    0.699663950456983763E-01   -0.200019861431995416E+01    0.202772158558872461E+10
    0.699758600474542358E-01   -0.200049505929462157E+01    0.202772158589378667E+10
    0.700020423387561486E-01   -0.200011346203870310E+01    0.202772158627079868E+10
    0.699952282397783426E-01   -0.200025613790853463E+01    0.202772158634580827E+10
    0.699860362664317115E-01   -0.200015565219086078E+01    0.202772158730261087E+10
    0.699860362664317115E-01   -0.200015565219086078E+01    0.202772158730261087E+10
    0.699860362664317115E-01   -0.200015565219086078E+01    0.202772158730261087E+10
    0.699753781888913656E-01   -0.200028662296814730E+01    0.202772158690118861E+10
    0.699887192978396605E-01   -0.200013604401539880E+01    0.202772158728731179E+10
    0.699887192978396605E-01   -0.200013604401539880E+01    0.202772158728731179E+10
    0.699887192978396605E-01   -0.200013604401539880E+01    0.202772158728731179E+10
    0.699688276544027515E-01   -0.200021521108703482E+01    0.202772158608281636E+10
    0.699749327113549785E-01   -0.200031129077272141E+01    0.202772158684352756E+10
    0.699749327113549785E-01   -0.200031129077272141E+01    0.202772158684352756E+10
    0.699965012886044902E-01   -0.199991752196602768E+01    0.202772158669596529E+10
    0.699965012886044902E-01   -0.199991752196602768E+01    0.202772158669596529E+10
    0.700106401545931151E-01   -0.199991649429686902E+01    0.202772158549857187E+10
    0.699916269662567564E-01   -0.200002210530602476E+01    0.202772158712582040E+10
    0.699916269662567564E-01   -0.200002210530602476E+01    0.202772158712582040E+10
    0.699916269662567564E-01   -0.200002210530602476E+01    0.202772158712582040E+10
    0.699819069240674302E-01   -0.200004148443764151E+01    0.202772158680036712E+10
    0.699819069240674302E-01   -0.200004148443764151E+01    0.202772158680036712E+10
    0.699633602089775319E-01   -0.200019715968805301E+01    0.202772158497177935E+10
    0.699785775635656249E-01   -0.200040710114997644E+01    0.202772158651594639E+10
    0.699785775635656249E-01   -0.200040710114997644E+01    0.202772158651594639E+10
    0.699843630500174979E-01   -0.200009827775580895E+01    0.202772158719407368E+10
    0.699843630500174979E-01   -0.200009827775580895E+01    0.202772158719407368E+10
    0.699843630500174979E-01   -0.200009827775580895E+01    0.202772158719407368E+10
    0.699734414343104044E-01   -0.200018555489043059E+01    0.202772158659516144E+10
    0.699734414343104044E-01   -0.200018555489043059E+01    0.202772158659516144E+10
    0.699765110980829497E-01   -0.200034447288749462E+01    0.202772158682269239E+10
    0.700003306637686923E-01   -0.199968412603304202E+01    0.202772158479744434E+10
    0.699743135547243045E-01   -0.200059308661478141E+01    0.202772158493258715E+10
    0.699951096890860797E-01   -0.199999565571365601E+01    0.202772158700232697E+10
    0.699951096890860797E-01   -0.199999565571365601E+01    0.202772158700232697E+10
    0.700001506146809976E-01   -0.200022196220849047E+01    0.202772158588151741E+10
    0.699682480418663266E-01   -0.200027908574987023E+01    0.202772158619947791E+10
    0.700114236122671985E-01   -0.199981743880516660E+01    0.202772158528027964E+10
    0.699951346255887619E-01   -0.200012050593997159E+01    0.202772158700673819E+10
    0.699951346255887619E-01   -0.200012050593997159E+01    0.202772158700673819E+10
    0.699758217994368020E-01   -0.200039161966474310E+01    0.202772158660808969E+10
    0.699928898551979567E-01   -0.200038802422410278E+01    0.202772158544723177E+10
    0.699904108095245198E-01   -0.199983153893802168E+01    0.202772158584668589E+10
    0.699637298249575212E-01   -0.200023489712445368E+01    0.202772158528157783E+10
    0.699925316959785354E-01   -0.200006472958495785E+01    0.202772158718551898E+10
    0.699925316959785354E-01   -0.200006472958495785E+01    0.202772158718551898E+10
    0.699925316959785354E-01   -0.200006472958495785E+01    0.202772158718551898E+10
    0.699897805836502823E-01   -0.200017063361387315E+01    0.202772158721278524E+10
    0.699897805836502823E-01   -0.200017063361387315E+01    0.202772158721278524E+10
    0.699897805836502823E-01   -0.200017063361387315E+01    0.202772158721278524E+10
